{"tinybrain":1,"topology":[13,20,7],"activations":["tanh","tanh"],"weights":[[-1.04620915728,-1.103349533073,0.045121357518,-0.930132605755,-0.710840968234,-0.419942543479,0.170574636138,-0.402037572815,0.767505683362,0.182697207286,0.116792638934,0.00894131428,0.220949373823,0.076614857268,0.415703890294,0.809059515181,0.639150787815,-0.867093699503,0.92559943503,-0.27972804144,-0.739995523468,0.280264846878,-2.113591429178,0.064729668789,-1.258061348208,0.743636537317,-0.531153653949,1.242352779369,-0.562327190424,-0.593930119134,0.16055731264,0.317026501529,-0.804048587943,-0.520687619979,0.19890468684,0.1528718367,0.704306670094,1.072324440615,-0.133356637244,0.120135764508,1.125015646324,0.998774569109,-0.783770986499,0.484211290294,0.060610471135,0.112751385482,0.030769260009,-0.915356562573,-0.98564553763,-0.493348616312,-0.513252705016,-0.858262673187,1.397684849751,0.216807020696,-1.430143841603,0.816928877363,-0.7361487935,-0.717632507169,0.124346046161,0.738175943605,1.675886763388,-0.831090971702,-0.554781971199,-1.429098974554,0.150557566365,-0.70626844615,-0.146271673425,-0.759878347702,1.101644642279,0.494574000917,-0.23658891755,-0.63826205369,0.268833619621,0.825076607766,0.563568530401,-0.678989302124,0.119741485976,-0.81057008063,0.472640631708,0.883826573325,0.35650280251,-0.207607483448,1.600660309149,0.976235579269,0.481875034739,-0.440029017599,0.163055195782,0.150898137526,1.49793463298,-0.677959870211,-0.159742277097,0.781679641773,-0.260416783374,-0.678420994793,-0.765775982042,-0.145210401083,-0.349344059149,-1.459286174858,0.475960458431,-1.313776866306,-0.50801602458,0.749905295786,-0.658291018316,0.393120514459,-0.298297986201,0.471872468466,1.415828681838,-2.110096655604,-0.115920891806,0.507701622279,-0.226018091909,0.009548702002,-0.675794888277,0.953772633175,-0.49201746103,-0.185410924715,0.324849214835,0.001300544153,-0.726706386277,-0.690530076013,0.736347794783,-0.463776873547,0.572865987184,-0.386495738005,-1.248728763987,0.398343393765,1.230224885107,0.435309659427,-0.239749434795,0.192532447908,-0.794796327592,-1.379572102232,0.570116910464,-0.564105311392,1.318813156532,0.159155373675,0.012412856199,-0.627152085317,1.316923285423,-0.59819973898,0.259554690942,-0.702226598096,-0.775938555587,-0.35305746894,-1.576873208246,0.046297714275,-0.474781180301,-0.375513405993,0.712282993138,-0.569684576974,-0.419293056996,-0.818531547263,-0.120719475169,-0.160838569496,0.904284362869,-0.054842203788,0.207679480132,-0.511472453369,-0.569495328176,-1.1048697921,0.026811580792,0.633245226011,-0.275037376478,1.453785578326,0.805877748134,-0.531272048145,0.170761930277,-0.70252102581,-0.356784721816,0.464448007785,-1.328760316842,0.983767013663,0.534847378049,-0.712701283075,1.080024137571,0.122112027054,-0.007390424194,0.747850463934,-0.077168467444,0.876217747655,-0.431148830909,-1.388136020484,-0.1732851392,-0.847939774044,-0.122366182051,-0.852581413301,0.81993726097,0.230322549786,-0.692021754567,1.806250090155,0.328023944668,1.132102529114,0.325249205774,-0.061774569872,0.114642747126,-0.98057464039,-0.228107417295,-0.813420974376,-0.242972008718,0.914326036309,-0.228279075692,-0.180243135747,0.342397943997,0.670135829258,-0.944751393769,-0.20296502174,-0.717496362197,0.281750023589,-0.166325487972,-0.11381435842,-0.258668246473,-0.661512118839,-0.179239920796,-1.395993534846,-0.471105793198,-0.643730434516,-0.497894708858,0.943134837525,-0.54161174886,-1.164233468829,0.545637916422,1.573635043145,0.23433784248,-0.658190721114,-0.629686287292,-0.299058704637,-0.021569276099,-1.466516891851,0.868521539293,-1.19477984132,0.509447669429,-0.41531101112,-0.385449832345,0.966476828682,0.834258570165,0.708977289688,-0.930616366319,0.653832278146,-1.496414558681,0.287311104027,-1.255751372527,1.927881567053,0.414865018062,-1.395661502329,0.405264543791,-0.083992079126,0.629688682561,-1.349318906641,0.092597716484,-0.652788446449,-1.38232829989,0.100103841536,-1.034810809621,-0.023104503203,0.876430286922,0.096217376877,-0.014010625106,0.151316952636,0.874773331301,0.443795929264],[1.418014146722,-0.960338193439,0.417294949953,1.505972807112,0.532821016541,0.246743263559,-0.433431718002,0.311412159964,0.312793184031,0.342947479777,1.39464480723,1.047921159513,-1.003200090259,0.253566256703,-1.106731923021,-0.261067720624,-0.199884892534,-0.12548939084,-1.40505121304,0.340147501389,0.501091996255,0.517984797814,-1.00196159226,0.698809995362,-1.08539523775,-0.749820047873,0.389288527514,-0.912283755053,-1.107462084343,-0.332591803201,0.605711866638,-0.494078796773,-1.813525748399,0.968948472696,0.178227773764,0.347067556366,-0.645019621283,-0.679380768714,-0.151270579524,0.444968057538,-0.978152654077,-0.305879226004,0.397086924825,-1.282573776125,-0.163094830077,-1.760916131111,0.121089688372,-1.587854166649,-0.661787417653,0.484988456818,1.601903458034,-0.092859770308,0.662209077162,-1.538259676769,-0.22518534587,-1.151628881298,0.730895773708,1.03527648879,-0.885387320391,-0.96297110187,-0.140062383255,0.28050143159,0.449742445606,0.345516581435,1.9293712882,0.699008440878,-0.326258251223,-0.914264050692,-0.810808293387,0.008094637286,-0.483548734655,1.853890566413,0.379331285171,1.126282655972,-0.812426436046,0.032649690533,-1.116937792868,-1.030551601681,-0.528848487199,-0.323488890018,0.907193658737,1.156635899822,0.426752147696,-0.861609510268,-0.400774484082,0.163199367916,0.721139917533,0.264783255879,-0.294906767036,0.062108699541,1.370020466377,-0.681385298065,0.885256395762,0.338370010321,0.415340639006,0.794989276954,-0.877737460787,0.766387983349,0.441043306487,-0.877362464451,0.134311992738,0.442173181308,0.259969873941,0.508387219863,0.932999578134,0.197094267699,-0.547243837848,-1.911062483076,1.76230658929,0.777410838091,-0.539824887058,0.470360564985,0.508171708793,-0.205452738472,-0.207265245871,0.305408640581,0.700556564145,0.88930035396,-0.955540479513,0.521378046424,-0.199407704174,-0.987326120486,-0.34018939768,-0.23025862101,0.047388950944,-0.902736469918,0.653982551794,-0.308547756732,-0.289428355214,0.281594920429,0.203772799253,0.522562769299,-0.577316227731,0.182446055106,1.506144108673,-0.679046721374,0.393316012758,-0.918846051543,-0.954673369487,0.999527516076]],"biases":[[0.703746428855,0.045106520338,-0.151381296456,-0.792080376014,-0.135198638511,-0.792677335158,-0.356568417119,0.71099482277,-0.92753892775,-0.456187609237,1.317681382232,-0.772419815032,-0.472253535954,1.27027837344,1.71406968069,-0.410164713631,0.804525325403,0.161122953315,0.696158270862,0.370415292992],[-0.253645550205,1.011452148534,-0.638861966198,0.878862554524,0.191682218337,1.136056214169,1.013547644817]],"vocab":[],"labels":[],"meta":{"trained_by":"coevolve-hof","seed":0,"loss":0,"epochs":0}}