{"tinybrain":1,"topology":[16,20,8],"activations":["tanh","tanh"],"weights":[[1.370348857609,0.774255713157,1.117642936072,0.042039789232,-0.036823296704,0.071811237033,-0.729089128379,-0.033780552137,-0.205154488098,0.686428060283,1.384179461973,0.624000112863,1.418825206542,0.265458493524,-0.58342531481,-1.477868315986,1.367368674682,0.092041437184,-0.448032348812,-0.426765823982,0.755026232291,0.77646853797,0.228465114873,0.359261285122,-0.33354315885,-0.433063574803,0.201551257261,0.355475797949,0.291975206459,1.389360121772,1.790786024831,-0.038454486913,0.309902264741,0.265711644974,1.55053685077,-0.809546057186,0.612540052325,0.473980265378,-1.495786710501,-0.502439733735,-0.301989370353,1.415911710316,-1.093126479254,-1.084027531968,-0.109735988132,-0.242772550901,1.663350647345,-0.146247659645,-0.654312772841,-0.362879391882,1.14119271745,0.428573958775,0.301983043878,0.490557589843,0.721076466386,0.22003160269,0.801071766392,-0.678803634913,-0.03363592277,-2.486746130272,-2.313681941346,0.124533895275,-0.896241722906,0.753607142742,-0.522379039052,-0.725123613479,-0.491683168053,0.564318955068,1.039704061504,1.635298939624,0.514739766118,0.18850138578,0.805572652633,0.457169879627,-0.376568802668,0.353899549858,0.735918034863,1.4829997003,-0.530472652256,-0.668302035224,0.472690686943,1.499972034758,0.251386322524,0.205478037943,0.388418680517,-0.62826798038,-1.891606275733,-0.56076926224,1.51502762987,-0.866741001637,-2.203187782971,1.442404028793,1.227044363519,-0.547159934671,-1.004480796077,-0.151176202926,-0.498235802724,0.110193149191,1.007242756433,-0.478185241007,0.305918882511,0.855048990322,-2.109971820381,1.115942855373,-0.721711542281,0.925564263633,0.222336119238,0.652019409534,-0.253238419375,-0.761495675455,-2.612814539258,-0.534357252221,-0.19592835563,0.86634279623,0.303355474166,-0.671472859416,-0.918353946422,1.483391097506,-1.487493155379,1.251148472378,-0.653900108325,0.25591404706,-0.20721534151,0.1664144378,-0.429092544983,-0.392268649811,-0.059792767586,-0.42529414274,-0.75874998535,0.459411877654,0.431972533805,-0.620436506961,0.301315238979,0.510309905051,-0.110100841201,-0.372851094637,1.02601727919,0.516297544081,-1.38144541964,0.633728648133,-0.715291199561,0.723216090502,2.09527044296,-0.434099255192,-0.385681680909,0.010632885346,0.192348336332,1.236414841952,-1.32984586569,-1.707356976581,-0.412827653258,1.040496229632,0.732017468723,1.077879956867,0.048706413409,0.684340524852,1.215355257092,-1.149235221813,-0.758749764347,1.334159920613,1.116107966106,-1.098955150414,-0.403634500366,1.29689348922,-1.559731890522,-1.838523988211,-0.257481915111,-0.08577072657,0.851142035728,-1.108993623922,-0.828095287424,1.349107627687,-1.693672816732,1.740325183673,1.198736136546,-0.782445130582,1.066391114502,-1.349193092971,-0.298690448561,-1.753441883742,0.724073971633,0.355695993572,-0.020758313928,0.029769499893,0.365633486102,-0.315482377454,-0.666709755765,1.951229055343,0.456707197314,-0.158833061139,-0.392101501996,-1.068356758388,0.023436784057,-0.614606758959,-0.70394791281,0.541844669144,0.116319532095,0.034005662302,-1.155170893602,-0.573134373256,-0.673299981129,-1.11417224813,0.727499148262,1.932318186496,-1.63875305063,0.53218016123,-0.648957883869,0.014278265934,-0.846380492973,-0.946572873949,0.551825383283,-0.002250080417,0.090860534176,0.354871133508,-0.905968462539,0.126321783488,-0.099293861119,-0.015983048275,0.63227950201,-0.58475460903,-0.285737668623,-1.621325686491,-1.808247141032,0.388598558162,0.481078075283,-0.806761861083,-0.726853352891,0.540856246669,-1.115672104487,-0.672800455369,-0.726026431995,-0.925492012559,0.07706647598,-1.418165424428,-3.530379428216,0.242281804486,0.409674780494,1.250004173047,0.240486374749,-0.604110107619,0.437167124654,0.424939155776,-1.185279430209,0.318971878532,-0.713647351467,0.095179646832,-0.692723674231,0.437111713335,0.690216783662,0.002522565752,-0.146485868863,-0.968584974049,-0.1743516215,0.0015990817,0.45661064999,1.350956519065,1.027835421417,0.04144904499,-0.291746171793,-0.55970509083,0.679438097346,-0.470263900221,0.030002049883,0.921467016414,0.979635750726,-0.058613500213,-0.293074620791,-0.129499196973,1.172653815696,-0.884142451633,-0.461341311346,1.258358674989,0.962566069729,1.31148197088,-0.749749673833,-0.131132550319,1.203073366407,-0.505003988745,-0.200236644875,0.003704068113,-0.49447438251,-0.579819373451,-0.313744687668,-2.443855137724,-1.521510325615,-0.57280158348,-2.162162102043,0.493039856196,-2.502542294423,0.701189378091,-1.612816834176,1.915403989896,-0.045436686438,1.713715131773,-0.602991870559,0.820631823093,0.013930129266,0.405458236069,0.811426175903,0.555142662746,-0.760900003026,-0.044491072858,1.22402688536,-0.918909964719,0.996583769422,-1.344466659634,0.496126475276,0.077519732424,0.516439729518,-1.769572802293,0.80974264448,-0.444454698658,-0.711055488284,0.398919654125,0.940566072073,0.764032540686,-0.640780664627,-0.971638833625,-2.050125623006,-1.002296397696],[-0.065892599274,-0.557295333807,0.170698494916,1.255753033774,0.008056413293,-1.29337819195,-1.225098996901,0.814928982274,1.478093626619,-1.702631476523,0.828122253031,-0.804728027994,-1.023363545222,0.637527548306,-0.082002654524,-0.664866051015,0.842084553997,-0.317039336086,-1.531831738694,-0.387539160106,0.294844362417,-1.230679969038,-1.919947547289,-0.594332105012,0.877253455844,0.137910276576,0.002762271512,1.219571065353,-0.175528283871,0.714279783663,0.845772922107,-2.452308508592,0.972583442355,1.588856176095,-0.623907058697,0.271414540974,2.483664207991,-1.104345924409,1.082510797066,-0.407896975012,1.094363882949,0.811120347265,-1.758635982246,-0.689270294406,-1.034905353764,-1.265735572235,0.783330341607,-0.87964505366,-0.318461811318,-0.12137762188,-0.855774136379,0.974179930694,-0.021149233971,-2.182638378666,-0.807644118419,-1.410541362879,-0.444072818777,0.368911530063,-0.72802122055,-0.316614653411,0.044794088437,0.155326579909,1.056426865354,-0.009921057946,-0.736079871951,0.22677022965,1.584003642054,-0.43407616575,1.813904833195,0.587456839433,-0.512732769834,0.79497090182,0.412591138115,-0.25440423426,-0.624538396962,-0.809639285649,-0.082209983879,1.521063286681,0.008923944043,0.244660952382,-0.814196041047,0.214980354214,-1.862498708238,-1.111038928391,1.198126986203,1.036844245036,0.02837879077,-0.989471130487,-0.076812852675,0.044423701029,1.522341364446,0.829238847145,0.853074290302,-1.152864494479,2.132478004476,-0.243471626958,1.079116869708,-0.561291538021,0.115011903232,-0.516887710112,-1.355768266858,0.174671285774,0.31590653654,0.462145510904,-0.471013204647,-0.304035465142,1.370853911559,0.477751336469,-0.122408698044,0.018701449651,0.371367572793,0.42462149664,-0.320961705931,-1.556143236931,-0.935567689052,-1.24378473947,-1.158023421307,-0.898573380149,0.713338599547,0.632824252887,0.112869217765,0.341176342797,-0.548741218983,0.285752505942,0.627784072434,-0.492820383465,1.860554242954,0.280424855268,-0.77466546268,-0.128913827161,0.085270654264,-2.512249534536,1.734439838228,1.745398384074,-0.502169074073,0.344067873826,-0.165322944552,-0.033675014104,1.175317240774,0.560632398008,-0.758374873995,-0.197398984431,0.711776979739,-0.126212148474,-0.165537014401,0.474552917282,-0.677865485464,-0.345925993168,0.220779400748,-1.262442562712,-0.264373402048,-2.022991991845,0.116191674776,-0.09133894946,-0.223904793534,2.090178582673,1.282444948648,1.159077680464,-0.59931264692,-0.700510141719]],"biases":[[-0.818384722629,0.066090870027,0.411674941476,0.485930881643,-0.238074689749,1.314322307526,1.569512473359,-0.769560170299,-0.150019900478,-1.534706352993,0.702375548753,0.556150827164,0.059181606797,0.566194199708,-1.579278637319,0.421749561802,-0.348858077614,0.080470977435,1.651952607814,-1.430460352837],[-0.020463169795,0.768318318281,0.820098380195,1.557981996824,1.123661644861,-0.101712868922,1.874659942172,0.054983095385]],"vocab":[],"labels":[],"meta":{"trained_by":"coevolve-hof","seed":0,"loss":0,"epochs":0}}