{"tinybrain":1,"topology":[13,20,7],"activations":["tanh","tanh"],"weights":[[0.791858103029,-0.217508669578,0.639010788705,-0.310218433528,-0.554004845002,-0.367873078849,0.39861087473,-0.654465886603,0.277187770827,0.130885604364,-0.02099173191,0.708108948408,-0.87295140972,-0.237498609925,-0.295399708345,0.760678466298,0.710246670856,0.317048902305,0.267563180657,-0.457706510768,0.04901871134,0.182215100705,-0.294873878963,0.142988588262,0.202143989132,-0.307500616325,0.637749383989,0.800514517259,-0.363737386355,0.032623255175,0.757150547466,0.414076723817,-0.102464637301,-0.07050716368,0.548701983666,0.393453559556,0.396773317548,0.644811353481,-0.311156127281,0.18258001431,-0.680129236393,-0.518369913808,-0.234109437668,-0.696665663131,-0.748224991256,0.431447058651,0.380968158776,-0.286007704812,0.12208101485,0.972667834709,-0.350950772572,-0.744742814333,0.519609351419,0.06300233354,-0.814357690427,0.139925413365,0.339628518252,0.208204519566,0.240363982152,0.609782476728,0.809934125193,0.330157208876,-0.981370354994,0.271594089117,0.118275752812,-0.711136020585,0.753150317703,-0.681014159546,0.765504565912,-0.329098858558,0.068998539387,0.628494739359,0.069563621222,-0.094440000641,-0.713270959311,-0.302476892854,-0.862094970356,-0.186314044141,0.434775252563,-0.963783516532,-0.794126502142,0.719615086783,0.539854080202,-0.70369456974,-0.040575934127,-0.640916256067,0.331403397644,-0.826592342847,-0.438981582149,-0.079951933157,0.640234594066,0.764090150485,-0.604345945457,-0.383133162457,-0.220884966301,-0.33820832583,0.345903841474,-0.875668206194,0.620018796818,0.927341218073,-0.312062416837,0.435076878143,-0.404015157094,-0.21564809569,0.450772969728,-0.737978271087,-0.94912362562,0.853467703729,-0.260473312466,0.692733968465,0.961391773988,-0.657677815136,-0.765814446735,-0.629158350466,-0.102735361598,0.861360310512,0.723548739088,0.421184540457,0.998952385969,0.430623108256,0.608058623787,-0.402171175649,0.795180269422,0.146785251399,-0.529129721936,0.379192409748,-0.003189062235,0.060776830214,-0.241628763844,0.337940482114,0.725012144877,-0.938754636766,-0.625071322371,-0.817802161825,-0.128153444793,-0.094933609988,-0.540287732864,-0.229153074897,0.551921671048,-0.189016853082,-0.032515098822,0.463664781984,-0.437308860681,0.663986082032,-0.727834218055,0.714460270346,-0.288290111017,-0.051948883129,0.375462467491,-0.051231723768,0.993461981413,-0.596695227361,0.924680072779,-0.768206877526,-0.114185057168,0.173105444374,-0.027094618896,0.115651290452,0.603441405857,0.720102109816,0.048942926828,0.524020926805,-0.985842185088,0.411883599782,0.033245091808,0.773826648376,-0.613856248378,0.545034557369,-0.636881236749,-0.894179119679,-0.920286036059,0.872753377013,0.678261807039,0.375687558845,0.814152984793,-0.021271039276,-0.774336893938,-0.016207267072,-0.34098883967,0.127720308084,-0.81300848155,-0.732412879231,-0.302093342553,-0.34773837279,0.321007074472,-0.667508160541,0.713582544454,-0.656996652324,0.114595657734,-0.353005543981,0.069386482737,-0.645091814755,0.773009959503,-0.036244849226,0.424883030087,-0.471254662364,0.066193009292,-0.797248472365,0.018990459395,0.68846546099,0.916267440615,-0.854374056614,0.509913177001,0.018967027319,-0.442624279038,0.083426540291,-0.917473629079,0.630450747735,0.488043919899,0.36805742484,0.499954432948,-0.6995671893,-0.807794711463,0.941482966739,0.324287434725,-0.321238378678,-0.497777170268,-0.201785996185,-0.411821826087,0.94863294342,-0.539188171522,0.84777244639,0.823759698227,-0.295606887571,0.759930044301,0.583168444961,0.124006708676,-0.072165500872,0.499107411829,0.413876414026,0.228381452723,0.201104375162,-0.490706567415,-0.896715707098,0.636102694849,-0.686816963221,0.658368343328,0.098300800239,-0.922071669214,0.67845534984,-0.281807897278,0.850990492781,0.16207703909,-0.379246085593,-0.587797665777,0.418875298192,-0.470480964273,-0.586626398185,0.957133229802,-0.221864229637,0.39177118586,-0.813087355258,-0.539725680621,0.901670733421,0.547972962981,-0.797103940415,0.99569223821,-0.939969383152,0.737905860756,-0.546195423951],[-0.964464154078,0.350818505208,0.360064914152,0.693471033915,0.540278096469,-0.236005332896,-0.213424246392,-0.201797585563,-0.971252697507,0.661038660286,0.997170688583,0.42630859624,0.342249080232,0.705351901103,0.041618164182,0.950403251662,0.915360981559,-0.610059161489,-0.16578423193,-0.570659490102,-0.304246727053,-0.293761584579,-0.165449208191,-0.398728604148,0.971549148658,-0.351045125793,0.700732835429,-0.925301000441,0.795407707708,-0.874541242549,-0.980319059445,-0.981318457043,0.776760057442,0.984732794568,0.03672660563,0.829980360265,-0.018029653941,-0.309425400248,-0.273495393467,0.103861959234,-0.479365824479,0.532286559014,0.004490154332,0.744239749268,-0.803063093593,-0.658590823253,-0.837629243656,0.798779486585,-0.115403063183,-0.621262924569,-0.982631885439,-0.623742002819,-0.650218057283,-0.675843122264,0.376645180106,-0.960511080902,-0.8303862353,0.426035848179,-0.823572555475,-0.670825321074,0.590926435586,0.609972150815,-0.034308023301,-0.082592767236,-0.835467253735,-0.839805044159,-0.229286608859,0.10610378492,-0.264198138036,0.891678867811,0.230628113835,0.649682949134,0.845637647363,-0.225124131527,-0.966952955335,0.213893029473,0.830425678673,-0.522064756379,-0.587855194503,-0.358093872367,0.450686950912,-0.890192522616,-0.483259207328,0.59480304904,-0.262019770808,0.043643346542,0.707980944639,0.948178672208,-0.467313866814,0.292335007942,-0.696831655547,-0.760844929032,-0.745569324002,0.623161080118,0.608498370093,0.824822739616,-0.981535975813,0.276911544277,0.797153786662,-0.589564055945,-0.8465445013,0.450377736916,0.183738672726,-0.750528856064,-0.778411086546,-0.681558638663,0.482953106744,0.629415626465,0.521705095433,-0.773338329873,0.185478712984,-0.757045543639,0.654562978844,0.409551799022,-0.525109390507,0.444610834794,-0.190393639351,-0.491365132617,-0.686316532868,0.814641923557,-0.419707963904,0.276874378918,-0.996855242176,0.800604903978,-0.000680095051,-0.828868197197,-0.296746920467,-0.270597851496,-0.028889541062,-0.527036604251,-0.583923812762,-0.586365828098,-0.464888117027,-0.614297007962,-0.730871346654,0.109225672255,0.432425416742,-0.392708460518,-0.430097643021,0.756673752217]],"biases":[[0.600690483861,-0.069653546004,-0.246319178141,-0.073048037977,-0.101841164335,0.025156404369,0.324795301689,0.194007839632,0.952426887095,0.59826697111,0.944962474492,0.283606198283,-0.045202694389,0.020739164679,-0.899781793309,0.633055168033,0.206016127582,0.604494496996,-0.446135515089,0.592551128749],[-0.601306736284,0.322532853727,0.983382279046,0.845991809781,0.870649924442,-0.85749728226,-0.251311965869]],"vocab":[],"labels":[],"meta":{"trained_by":"coevolve-hof","seed":0,"loss":0,"epochs":0}}