{"tinybrain":1,"topology":[16,20,8],"activations":["tanh","tanh"],"weights":[[-0.258018127623,0.709366083336,1.016276846973,0.239604843892,-0.174081519839,-0.599227102566,-1.162761291984,0.718755544591,0.193837070695,-0.049055702355,0.397741997427,0.247540591446,0.00724858465,-0.0960915138,-0.423254302993,-0.455399071684,1.228810773757,-0.065094925587,-0.714575478814,0.091277289666,0.315513373453,0.543681390092,0.984601465466,0.94052347268,-0.439455890767,-0.146331081468,-0.529867027947,0.306045078116,-0.350565936673,1.005594012656,0.97023918753,-0.365960840027,0.205051079488,1.241596161966,0.867531801838,-0.658691972195,-0.411408617912,0.62232713719,-1.114981901513,-0.502503221111,-1.056532420896,0.544810763162,-0.350414404157,-1.350241706078,-0.796364721282,-0.028418765882,0.824601501331,1.31800010573,-0.33364411147,0.088765394217,0.367293718582,0.41226621932,0.592872072008,0.542517546025,0.381318270593,-0.501155137364,0.330492869406,-0.412449332565,0.241953509088,-0.928802721635,-1.757076020519,-0.099791846517,0.554465108483,0.0742811398,-0.525398786611,-0.416635367981,-0.2554315171,1.312246971304,-0.498071737913,1.47396487504,1.005431834657,-0.432583241087,0.634237563812,0.660142488945,-0.506213968762,-0.034688948809,1.924369020352,1.480909976028,-0.672151715901,-1.151958608046,-0.416350747187,0.574801163457,1.217010858896,0.91226511384,0.519897896014,0.638723618136,-0.921685960759,-0.568352337493,1.024960991566,-1.301383643924,-1.365456795956,-0.098429265245,0.100781711005,-0.788064861478,-0.953172168254,-0.1827397847,-0.113513320411,-0.948692920221,0.336495757399,-0.134520568156,-0.536915606743,0.298235415527,-0.239917677846,0.76685632177,-1.430697981096,0.725194792787,1.447097574802,0.697250898833,0.037143148918,-0.850986246276,-1.005195008919,-1.504037602527,-0.139194079926,0.462929208373,-0.122120002854,-0.281493262798,0.353752042564,0.942279152219,0.268195523027,0.490438881652,-0.601632291824,0.777874666675,0.33982717732,0.381336365259,-1.498659390443,-0.333853563822,0.256256122075,0.618000171901,0.307092656338,0.904692083227,0.372867096669,-0.845071337719,0.430551902405,-0.431917390289,0.135894015308,-0.243977805294,1.304523085013,0.51679325668,0.969929953883,0.336706081329,-0.440481902026,0.658551316968,1.280690380782,-0.587104821898,0.196568877481,-0.969877059604,-1.140701065418,0.442680131245,0.222140426851,-1.039412198793,-0.559984784741,-0.315898512684,0.487632010406,0.702316625883,-0.016122871598,-0.225888027822,-0.049291155045,-1.082000467499,-1.029789979583,1.317903847768,0.84284491094,-0.732311235197,-0.155842753526,0.927294945031,-0.883511349039,-1.64552737295,-0.764831668541,0.510007811715,1.018229270036,0.209472287218,-0.928674511532,0.828667638976,-0.97704415744,1.741885260512,0.004821001368,-1.005076960151,0.394829022044,-0.907993700359,0.524800126965,-1.182067608732,0.219698663391,0.631208181163,0.86379029018,0.800380603504,0.165999984073,-0.031550817346,-0.338695943234,1.194299756314,0.414493750834,0.208263182784,-1.335009707387,0.407516070086,-0.161063284688,0.176364825236,0.878881680816,0.3907145597,0.005599009528,0.437576719577,1.11787813181,0.199882331258,-0.986957582686,-0.423833048308,-0.026079340943,0.4397093096,-1.107341450456,-1.414369512915,-0.080756520657,0.191828210182,-0.321677403069,-1.171048451341,0.654424026913,1.031944893781,-0.788939655427,-0.632492287006,-0.445189426628,0.643764113329,0.755905998524,0.21972518364,0.236850157071,-0.018496942762,-1.320709574698,-0.04208539703,-1.018309813281,-0.056841614915,0.258081124983,-1.288802204881,-0.219065349418,0.302123731189,-1.155640084229,0.895447723286,-1.186409216228,-1.062530124263,-0.072924728679,-0.384753196773,-1.574883255677,1.121391489832,0.195864604784,0.222718858869,-0.475779546227,-0.696227600843,-0.134147660078,0.100208150409,-0.630458298479,0.448532780236,-1.297068434114,0.283825641677,-0.610051573771,0.837257276213,0.768308039507,-0.304767065497,-0.29232111219,0.286034376307,0.783730001507,0.182231741437,0.056427526687,0.691812458957,0.499114259611,0.503297603924,-0.104942047505,-1.375721487671,0.715427719343,0.112280148413,-0.598002070234,-0.206705756442,0.830915820939,-0.839886732511,-0.368379825339,0.308717434205,0.491187391519,-0.646605811476,-0.711485892772,0.129461315521,1.589631712292,1.146828377455,-0.338973275404,-0.494614482389,0.878411576142,0.529809572608,-0.76945356497,-0.136690102302,0.137175453518,-0.188360563427,-0.057204540333,-1.743908518759,-0.259673620416,-0.309990671049,-1.868686380875,-0.031657732386,-0.669132516752,0.451783275861,-1.310893865913,0.519090634314,-0.150694351248,0.240611130763,0.584968073426,0.598559375479,0.088042466057,0.477329246503,-0.116123306293,-0.035076802473,0.164233798331,0.334164829894,0.582677330069,-0.180719296206,-0.54548569524,-0.886142987984,0.158442552275,-0.950394003908,1.16529101942,-1.416637140613,1.006791774978,-1.034581073483,-0.385520118049,0.657788715632,-0.005816325595,-0.738496677223,-1.169307741508,-1.181194526461,-0.954925789989,0.053844046478],[0.825398352149,-0.48849269058,-0.29032011353,0.426500364452,1.035171686455,-0.714140609239,-1.078418147088,0.72198252665,0.498541274992,-0.701500566304,0.645394194892,0.002436509962,-0.851384029142,0.441081306311,-0.919230642831,-0.42929892858,0.702070248081,-0.687434884574,-1.612021875899,-0.461514280253,0.594869863798,-0.594551560886,-0.809889260638,-0.876200201491,0.40432218644,0.398553486075,0.155596906764,-0.059296379313,1.057392263486,0.568815153031,0.47731150057,-1.757586405034,0.593671186917,0.501722883853,0.181040763287,-1.105377684536,1.142233173383,0.274357428809,1.081984959488,0.116074584013,0.023529797105,0.241876727595,-1.109888210385,-0.757727860686,-0.337087723258,-0.817167725515,0.097625402174,-0.907087341932,0.653627934797,0.093477009793,-0.623056787263,0.884105934847,0.151116418629,-0.76506407059,-0.772692862513,-0.283502074649,-1.574147459014,0.406062104323,-0.442923402015,0.855104424318,1.317701027644,0.277901932959,1.034594951586,-0.788334525557,-1.049523070152,0.50056272354,0.928025176436,-1.139387693647,0.214740724962,0.529913882087,-0.022550811908,-0.10550942831,-0.304510042586,0.401982913819,-0.805981180633,-0.66310051161,0.41489262833,0.874580809229,0.154462460174,0.271374483905,-0.914846111236,-0.567469450863,-1.58562581897,0.117141508272,0.590580976005,0.628643458909,-0.61487536459,-0.978651366839,0.65931884435,-0.546882982667,0.740641298676,-0.382973513279,0.600320302695,-0.891432130053,1.250071949069,-0.416797647586,0.392229890959,-0.146621939748,0.549092876981,0.215078930517,-0.673169340553,-0.843978437848,0.899901575735,0.753253728875,0.284793186041,0.399143564235,0.908053254619,-0.255497421304,-0.285733574296,0.311890781304,-0.176602494287,0.513688836532,0.752968980024,-0.910036121639,-0.727553510399,-0.925735802262,-1.079460766529,-0.199480544496,0.858453867146,0.823405007237,0.094754960665,0.188285326813,0.191340536387,-0.442843853237,1.041792113633,-0.046719652855,0.478681248323,-0.113800978434,-0.511187007377,-0.68892887169,-0.020077150092,-1.344753051198,1.040551847751,1.372200885914,-0.394469317046,-0.657215592897,-0.90303368345,0.265363142949,1.2656773832,0.814855059895,0.043458998317,-0.519234764631,1.642969210512,0.458777461787,-0.308676589052,-0.286950732063,-1.538312138216,0.751982113231,0.808112523522,-0.28823418803,-1.18932026084,-1.279086601398,-0.408542031426,0.209963443507,-0.242154771528,1.426561454836,0.542569337665,0.124410685536,-0.383844542077,0.888330248226]],"biases":[[-0.792604685618,0.894746684886,0.506679005551,0.003632509338,-0.529607757474,0.057050803144,1.239960583411,0.204124843797,0.323955065815,-1.013584205328,-0.174264244118,0.13070315138,-0.208123117037,0.371537685986,-1.231588550579,0.119066834645,-0.604809949736,0.340646384256,0.813856124419,-0.290180209042],[-0.435883162001,-0.276402908227,0.582319015489,1.407253952048,1.209785490441,-0.374791691115,0.296931100961,0.121915996551]],"vocab":[],"labels":[],"meta":{"trained_by":"coevolve-hof","seed":0,"loss":0,"epochs":0}}