{"tinybrain":1,"topology":[13,20,7],"activations":["tanh","tanh"],"weights":[[-1.16524531374,0.070620785686,0.092774287561,-0.712969901093,-0.043466171317,-0.458759881816,0.367562680304,-1.006024659614,0.024283649365,0.643057941665,0.049189276876,-0.365021730664,-0.433026049674,-0.303042497674,0.720103119323,-0.417423709863,0.50153415911,-0.640270076385,0.679659692049,-0.2130661198,0.212612382887,-1.234941043209,-1.538062769192,-0.31876886581,-1.548544931388,0.657524667241,0.190596809327,0.833700058904,-0.461979179719,-0.570258624884,0.867509209024,-0.153179179902,-1.799892354011,0.413190608292,1.243909637418,-0.572859669185,0.851973907301,-0.202369930643,-1.084569619729,0.862817612087,1.681889962536,0.63797755802,0.2893395537,1.648586741532,-0.239746919526,0.457936157546,0.946002216519,0.053248403386,-1.098128525213,0.816057679437,-0.761988632037,-0.488749806019,1.449808010808,0.769459370882,0.746583309791,0.523657003382,-0.464219084691,-0.07016422696,0.814344152116,0.44714369655,2.114122230659,-1.663302054844,-0.867512623112,-0.551902966132,0.871364724809,-0.035387808148,0.787933963997,-0.155147803414,0.905742993488,0.659988488844,-0.214448550443,-1.603664692866,-0.054475893478,0.291784755742,0.396358376181,-0.940004252521,-0.918667989745,-0.676330298593,0.431639473295,0.64234823675,0.589416909539,-0.175147569308,0.781779783024,0.625897637441,0.190651882016,-1.327187863843,0.289699514392,-0.324202861741,1.047689371019,-0.624528830789,-0.640449950537,1.350147736189,-0.093539048309,-0.283583743583,-0.96482094385,0.079798546145,-0.391473384989,-1.816348138087,0.342455365575,-1.689366806061,0.258447120599,0.525377177831,-1.26269794319,0.347343791857,-0.55507891977,0.817691482519,-0.004192943035,-0.203452066706,0.170380754383,1.060568080498,-0.671404128229,0.272736714023,-0.770645353278,1.354718322472,-0.682610925558,0.18528552809,-0.802204343165,1.063208871923,-1.206464676329,-0.892936121483,0.691745422637,-0.080766467043,0.949578908202,-0.011446163483,-0.451369848126,0.753486350297,0.048019367851,0.298009445052,-0.436850565503,0.382030563234,0.08596651926,-1.348469885554,0.842172832015,-0.370072137597,-0.334863919921,0.173081144445,-1.517091731595,-0.352021393204,0.350793394051,-0.826046195545,0.528295275862,-0.836194233008,-0.936680949729,-0.224954236916,-0.947681641228,-0.206878597199,-0.866100172636,-1.808904458819,0.6153605274,-0.014784837521,-0.544814485565,-0.319332931619,-0.371070892909,0.869930016934,-0.216670151761,-0.421482775603,1.02384185089,-0.61484284397,-1.155558938792,-0.811098883353,0.690764327855,-0.032479794851,0.288382760476,1.132241392244,0.372994676732,-1.535200087603,0.504104755821,-1.641394219474,-0.205441384579,0.007593656242,-0.827061490401,0.95976906538,-0.062203621428,-1.660108398581,1.812114434602,-0.204935418398,-0.364720590163,0.753635356786,-0.019951192299,0.486111344996,-0.091506352039,-1.277595320613,-0.144850841511,-0.486624577356,0.486594396125,-1.046140012958,-0.161695580027,-0.529424779457,-1.01808934003,1.321164591574,-0.455926649392,0.700831296994,0.97621080702,0.836762586719,1.055140885876,-1.291487219507,-0.372217386948,-0.561829514272,0.409949381235,0.912356010085,-0.044245577484,0.297113554504,1.136581176769,0.076553478547,-0.900566150388,-0.098675267817,-0.394410732805,0.16988039155,-0.295320844369,-0.272063622098,0.423974629503,-0.643528477775,0.103497197574,-0.886430182814,-1.28231210135,-0.739949206095,-0.157287834611,0.686945098446,-0.899727148563,-2.036760508519,0.833974586583,0.350945997495,-0.227225836938,-0.053084301135,0.361261219327,-0.37023278804,-0.335911113786,-1.306739327827,0.339974336065,0.376417688782,0.170828703358,-0.14816819129,-0.848541896906,-0.525054694677,1.889271192806,0.176683066868,-0.860972127486,1.132175043566,-1.103218214215,0.525298532017,-2.129982285635,1.0995731025,-0.68508998709,-2.224263922183,0.393816344297,-0.972311151061,1.631708906839,-1.186826177215,-1.036234273639,-0.476056875324,-0.526478278929,0.155299091085,-1.036937909916,0.832077168688,0.204593942503,-0.669193932353,0.660177649492,-0.658474555639,1.001944450988,0.439681352181],[1.227961328639,-0.703595872085,0.163551626058,1.093281741437,-0.278941877642,0.853932774651,-0.854252694992,0.287109899701,0.651667340962,-0.05911883994,0.671095994055,0.238941597398,-1.358234729971,0.123106978425,-1.065988770903,0.327837944975,-0.561536259838,0.387868388969,-1.24672937116,0.349037433252,0.815810332548,0.51335807136,-2.052034838289,1.144316189617,-1.519577372549,-0.389362778929,-0.41699420615,-1.164643294767,-0.342954643091,-0.123347410664,0.417613575104,-0.66847959448,-1.217528837927,0.842134759734,0.084014471427,0.889018834424,-1.97578857079,-0.426339328208,-0.858833377929,0.652654022375,-0.373486289742,0.224479077535,0.230981095708,-1.203891254963,0.010046371403,0.95864670135,0.774388124689,-1.04686083088,-1.472629994653,-0.163143016893,0.945179801129,0.161931773583,0.811682647053,-0.051268341882,0.01793065491,-1.398634430626,0.787760129938,0.422087616111,-0.369305638722,-0.371441356871,-0.77403140444,0.542143411628,-1.201960017067,-0.170132971914,1.56272189038,-0.427983306594,-0.42435652964,-0.460422416246,0.513487568644,-1.204031782087,-0.305325542812,0.615094136174,-0.025579720747,0.218707762155,-0.631933723778,0.184449145237,-1.781580874176,-0.826600173827,-1.088517961087,0.053602210876,1.242976734295,1.011850916646,-0.361878520419,-1.559848856674,-0.534136811753,-0.85965202216,1.068180192899,0.533400606845,-0.591051349878,0.279260367052,1.247967921685,0.869956334061,1.715974844813,-0.413273417211,0.768459748136,1.580488740411,-0.457834089714,1.124149654584,-0.157371612199,0.391116019148,0.132100311495,0.41660703943,0.675530730875,0.23660400926,1.49885238884,-0.148993906448,-1.368435833449,-1.497923289704,1.07577426493,1.073270117852,-0.95023570864,-0.092399184868,1.083161434058,-0.249352703499,0.721705246215,0.438384623424,0.665974180012,0.043908972127,-1.082295054515,0.920787782697,-0.15135358132,-1.636374727234,-0.875156247604,-0.688974219695,-0.385993848688,-0.85546886225,0.595417718773,-0.832792002118,0.753301602534,-0.280004200982,-0.020617301027,0.154581685436,-2.153547302612,0.872991524205,1.210344977868,-0.665863678169,-0.594013006051,-0.460440041386,-2.18431550543,1.112302208278]],"biases":[[0.292957459387,1.0954206645,0.035596143378,-0.432303122074,-0.400828546193,-0.652217886202,-0.174786781461,0.268146877302,-1.405475740836,-1.108478144746,1.515715235758,-1.177489029093,0.016678636482,0.202768620524,2.115345602583,-0.087339730834,0.743587157337,-0.176410718763,0.498179515497,0.869938483448],[-0.239134201519,0.964857866552,-2.092210241357,0.374359302676,0.268951974748,0.205187776315,0.988703070529]],"vocab":[],"labels":[],"meta":{"trained_by":"coevolve-hof","seed":0,"loss":0,"epochs":0}}