{"tinybrain":1,"topology":[13,20,7],"activations":["tanh","tanh"],"weights":[[-0.962608862465,0.079208092568,0.704884788024,-0.632830680875,-0.736989889171,-0.506646613314,1.191557013519,-1.585200219595,-0.138848201017,0.821996150921,0.874408895278,-0.724724931607,-0.411609040113,-0.539803849086,0.564100309352,-0.420978358211,0.656387983103,-0.301376251225,0.639123455034,0.188808513614,-0.073423861514,-1.423413468256,-2.547682932135,-0.764630300349,-1.845486963468,0.88404539101,-0.07190579603,0.777521319025,0.224391347787,-0.86285007259,0.62075421392,0.22660667674,-0.761330961884,-0.073623823362,0.905850492234,-0.748000669967,1.35235930055,-0.456431143385,-1.40420187344,0.343854385495,0.908204526318,0.362723398238,0.691815623451,1.941946030661,-0.170264801229,-0.190269090743,0.21910608151,0.159657536615,-0.61409831369,0.521414195011,-0.952011489986,-0.155102771733,1.484636856422,0.779882822083,0.497857882221,0.055116199961,-0.981731080023,-0.027624767473,1.180317245182,-0.430047847391,2.01997955773,-1.763484175812,-0.451634677663,-1.105909648308,0.952950083303,-0.617111367088,1.284352237538,-0.279509574305,1.250759010041,0.4642323552,-0.454185512547,-1.935022363828,0.616787358288,0.564123402938,0.235067031921,-1.760072402544,-1.491730565294,-0.962671868067,0.094154656676,1.127697812779,0.682608029285,0.179968970679,1.381704647924,1.018672480862,0.868365081897,-1.598620723467,-0.889677462024,-0.411508196924,0.560022155596,-0.327414049919,-0.588513817679,1.624513790861,-0.772236200083,-0.334112695155,-0.839858229896,-0.122264383464,-0.043847806353,-1.499741698755,1.055106230944,-1.734075997041,0.162483660114,0.982720711633,-1.543794193651,-1.125965284009,-0.359323470229,0.263683295652,0.11201300752,-0.997531831589,1.026670032193,0.820522292061,-0.975551472546,0.307173495557,-0.335923699819,0.659984543761,-0.520126902415,-0.040283037601,-1.097653737803,0.87389930709,-2.011403304903,-0.873069982078,1.363193096948,-0.489952312871,0.304927780202,0.430650498034,-0.174229815451,1.051034577401,-0.537849622657,0.301126718149,-0.172784564352,0.613969563234,-0.63895650289,-1.763908646937,0.93490114847,-1.355347035804,0.001896728762,0.076393079747,-1.156846311063,-0.855293237583,1.583451999111,-1.254215047254,0.71278092899,-1.316944135594,-1.115023693636,0.445735389667,-0.872616999118,-0.180304979757,-1.715932033218,-2.409763520774,0.107339153442,-0.239805709124,0.240532971379,-1.459447306096,-0.765631090228,0.974519035395,-0.046777922915,0.39953843886,0.828179645831,-0.27805697889,-1.124866563093,-0.925395131263,0.317022702804,0.925748142379,0.414835611272,1.289593519731,0.324447656341,-1.486936715286,0.357385000846,-1.353600796663,-0.769131419933,0.027845511971,-0.618876744909,2.025625592529,0.18829143587,-1.980059266733,2.003234565399,0.35447984033,-0.145659792212,1.569730198881,0.039689447516,0.36657317079,0.872129340597,-1.532542891816,-0.595459847895,-1.322772083861,1.078638661596,-1.391098228605,-0.646883320504,-1.023201406385,-1.280412103972,2.146340028824,-0.668875666274,0.795103483319,1.375564978121,-0.11981134369,0.096673179416,-0.658004438671,0.097382260392,-0.485432056377,-0.034720588818,0.946586423855,0.571433584612,0.044702132626,1.279113909034,0.075945662603,-0.239578224411,-0.020843237415,-0.945241276475,0.433580774643,-0.069060130729,-0.747550288098,-0.614857334092,-1.292310302096,0.376035723126,-0.28118854737,-1.349586450239,-1.64455705371,0.203540789384,0.186936999665,-0.571409091107,-1.942294454222,0.705171322872,2.147805026242,0.551671625651,-0.30396203045,-0.539076053369,0.162560632156,-0.299550171243,-1.418214883431,-0.074102060531,0.390212667356,0.662115858245,0.109414217765,-0.705246619324,-0.537563069974,0.978279111059,0.640359976767,-0.963573504315,0.396812098239,-0.683343382405,0.366529141491,-1.826995946666,1.387591092981,-0.301451583673,-2.045377322121,-0.127207662178,-1.168160174772,0.91650498892,-1.074289341492,-0.888374584861,-0.409241413423,-0.697308134845,-0.110234607714,-0.726874244784,1.586906188534,-0.104336928811,-0.775012208184,1.311485064454,-1.009416177501,1.292984484133,0.618301688097],[0.355227319643,-0.484337644132,0.302416874609,1.108142580282,0.610462768381,0.705271325263,-0.371211847277,-0.43245342217,0.818379989275,0.006387706057,0.525453727006,0.546719982869,-0.355643368538,-0.304878935034,-1.095339440273,0.83953684207,-1.051195131685,1.102891087906,-1.116529519771,0.005641254552,0.85336377083,0.131442010045,-2.099074447155,0.344803613445,-1.691609675759,-0.321070513977,-0.836138014605,-0.151088666614,-1.327588454786,-0.416017758761,0.38273760629,0.035816443216,-1.830372819877,0.978826399464,0.612577291258,1.314072262083,-1.228732919148,-1.232662735336,-0.503708305025,0.384273342967,-0.364683900105,0.052317271127,0.432552390235,0.220169787305,-0.319677196266,1.165604950053,1.214021302394,-0.790985368747,-1.918926059091,-0.069826194863,0.348539258562,-0.038500236598,0.194196200089,-0.934982853446,-0.283427623419,-2.103281286593,0.322555618744,0.123644823825,-0.763016143517,-0.516243727047,-0.622062479529,0.452438697988,-0.337294481014,0.093568155492,1.263905832387,-0.521370676729,-1.08810562286,-0.598669777717,0.256272717359,-1.147548764594,-0.073087302303,0.276860991901,-0.111425597831,0.171624933543,-0.308340068072,-0.542961535669,-2.406759167373,-1.039447188396,-0.870745914556,0.406815736837,2.211046946706,1.27135089546,0.410989739472,-1.495825260317,0.010479290555,-0.668481082222,1.667673273556,0.65648977992,0.13363962012,0.520106956512,0.400232801866,0.552775776271,1.707582673807,-0.317149028656,-0.043742822969,2.003943990312,-0.461282699863,0.469062201338,0.504339764362,1.188263562549,0.049908929667,0.956482117836,0.532665981647,0.887743515702,1.440319164675,0.346426489086,-1.137198553531,-2.551519335365,1.248150219884,1.639418793674,-0.875318787655,-0.730998793492,1.60956340889,0.428929077894,-0.37396551579,1.375765048049,0.446051440922,0.875264925824,-0.321306091045,0.463708233723,-1.248570429091,-1.355293236885,-0.662471602374,-1.672524546633,-0.442774053124,-1.198329143272,0.683501743518,-0.623100841289,2.007520568095,0.057498354398,0.105217851421,0.173687316884,-0.725546410319,0.774131754075,1.537487428699,-0.751549167536,-0.526105804334,-0.344302475426,-2.496566628384,0.057458732863]],"biases":[[0.189719453403,1.206696645453,-0.255593084849,-0.386427139997,-0.583669540418,-1.403685926322,-0.261945817788,0.576401020995,-1.910031629219,-0.960534589859,1.666201654294,-1.054465809304,-0.458683360721,-1.059342180127,2.399160984624,-0.66372890983,0.744110515548,0.311737752572,0.767396061061,0.577573469224],[0.034685583149,1.507860470381,-2.373924669472,-0.064515428182,0.544214782139,0.311233086051,0.849023870448]],"vocab":[],"labels":[],"meta":{"trained_by":"coevolve-hof","seed":0,"loss":0,"epochs":0}}