{"tinybrain":1,"topology":[13,20,7],"activations":["tanh","tanh"],"weights":[[-1.294840050253,0.253705856182,0.61320830668,-0.292757858891,0.079685524748,-0.130119658369,0.475419595081,-1.946565537689,0.43464269621,0.566192116154,0.775413144275,-0.603048988899,-0.567363608846,-0.030276833302,0.741374015548,-0.825551928405,1.094958640027,-0.141423622072,0.667967502618,-0.09308432778,-0.00953377183,-1.304995449076,-2.174970281392,-0.764630300349,-1.114767196455,1.055356376411,-0.032007944599,1.061224214109,-0.352730793717,-0.86285007259,0.804822705456,0.504265530223,-0.758452479848,-0.089272037516,1.00463948278,-0.554336099445,0.831897749813,-0.418519946057,-0.917651208266,0.566413032527,1.267058036414,0.875899246603,0.943055868821,0.819346904065,0.102766448214,-0.120101167643,0.94032801955,-0.001126559172,-0.444265176842,0.500809713314,-1.249957321049,-0.979190565124,1.358592031504,0.528189671891,0.65423580094,0.519242087761,-0.477810157406,-0.333599127938,0.515370921565,-0.121086861995,2.239560670145,-1.995506539287,-1.021437559566,-1.081624329547,1.25607890345,0.103357811227,1.240747739906,-0.157636379151,1.48486691829,0.262515201309,-1.244818993539,-1.946453015528,0.237201923848,1.042739616913,0.235067031921,-0.425313132361,-1.202057019436,-0.728967222957,0.581140852105,1.046594126917,0.669039701563,0.061584660579,0.842119504578,0.681221030085,0.780600575721,-1.654543283467,-0.580902638138,-0.204634634221,0.560022155596,-0.74952905362,-0.20757243899,1.719135781386,-0.269998695129,-0.334112695155,-1.188920158841,0.13915928781,0.128780872761,-2.812450303003,0.525244729233,-1.509801927167,-0.241707186653,0.609799531014,-1.290321945534,-0.794850590171,-0.359323470229,0.52761068052,0.314058402327,-0.525284730934,0.698336056666,1.096071622379,-0.671404128229,-0.042675647904,-0.529192428258,1.042004690013,-0.857511447024,-0.260150245186,-1.007666088551,1.367005449378,-2.233392179074,-1.141111493223,0.800096067973,-0.62404432377,0.567156955026,0.729208436855,-1.263261603733,0.880726227993,-0.523795946838,0.226283958986,-0.241322954251,0.764948805545,-0.878299088207,-1.581427195008,0.971088237488,-1.067330084959,-0.278280735751,0.302160945862,-0.853716556194,-0.138539381855,1.123839211009,-0.664081328346,0.82717509555,-1.139844654938,-1.008101723161,0.125951609586,-0.756250066429,-0.814350719663,-1.167972407196,-1.659016050798,0.164366428165,-0.340049579013,0.067732082991,-0.736273124738,-0.12124048058,0.974519035395,0.238097956794,0.465110296647,0.828179645831,-0.27805697889,-1.130013359818,-0.6035932655,0.506459544742,0.749912796891,1.080196589734,1.1356094354,0.404361012208,-1.611234824784,0.295218542542,-1.583029017683,-0.756535418544,0.007593656242,0.111120172642,1.386336253437,0.092904547086,-1.789840369201,1.88331026164,0.359111032104,-0.327187535133,1.769630502336,0.221854309794,0.421807605457,0.068635924379,-1.261170065478,-0.536751267052,-0.969113514185,1.009694382646,-1.038438199525,-0.519619657481,-0.923200845683,-0.822932615142,2.326129116642,-0.172445026074,0.962585958029,1.434082418324,0.291106439005,0.258418842386,-1.018160722413,0.289510291298,-0.437990656373,0.18372746044,0.805425774774,0.38676076568,0.249015159136,1.116826604547,-0.510142137907,0.340994145927,-0.609643392176,-0.945241276475,0.426880773961,0.044860220675,-0.371030105032,-0.226894401026,-0.862492927426,0.48995042806,-0.338081505447,-1.349586450239,-1.221599800336,0.206441814688,0.400621405337,-1.124001632083,-1.753920386477,0.833974586583,2.147805026242,0.134992808492,-0.33390634434,-0.588286818512,-0.076963417454,-0.318660270385,-1.450235316227,-0.231198830684,0.61541633304,0.175093414018,0.109414217765,-0.845074516882,-0.734071891678,0.961969246232,0.923438189842,-0.753499136704,0.657130201234,-1.160385380248,0.267124389516,-1.71869323478,1.467403718348,-0.615294471111,-1.903754319159,-0.125383132801,-2.192963668468,1.112980509462,-1.219789089784,-0.888374584861,-0.393250316984,-0.364846591821,0.278386755278,-0.744128095752,1.103227815779,-0.104336928811,-0.795440934363,1.672647180768,-0.635410873981,1.451904364606,0.46656825974],[0.328663586,-0.297453790343,-0.416963497976,1.231891151393,-0.125933337317,0.448518405691,-1.330782417735,-0.43245342217,0.586592187214,0.05525546165,-0.064347797522,0.056208988305,-0.828405318516,-0.030911425469,-1.524489521852,0.337474412861,-0.627685170308,1.178980288878,-1.105367646928,0.267299355505,0.174662863405,0.105607368427,-2.099074447155,0.408288763886,-1.871789215958,-0.614069683018,-0.965296206514,-0.0852646626,-0.58168262899,0.072521105862,0.666662693334,-0.657319321324,-1.721211100659,0.416133684859,0.269318306991,1.233812951685,-1.585666741797,-0.872319099434,-0.392196123997,0.27322479448,-0.364683900105,0.2695224895,-0.005443134441,-0.535761404334,-0.15434865819,0.519961901763,0.206099417389,-1.190370218591,-1.292634652365,0.203962682655,0.348539258562,0.021322655827,0.563019627083,-1.153335259321,-0.600010707974,-1.835222863003,0.633948777911,0.505743519266,-0.753023504816,-0.19922229452,-0.960928983875,0.053779982335,-0.778655646033,-0.600119853951,1.56272189038,-0.443114186331,0.207766004236,-0.427406159289,0.550345216203,-1.162290367234,-0.223856467159,0.398805645154,-0.417609522779,-0.118963624732,-0.308340068072,-0.383770154036,-1.796192561088,-1.212464375288,-1.024689265911,0.372960292256,1.987213742308,0.839377638995,-0.02206238472,-1.95657125742,-0.365154229926,-1.199326210888,1.713643696072,0.70998251392,-0.104498663547,0.038574343565,1.118096433588,1.16200975746,1.780131830918,-0.348037361376,-0.043742822969,1.865487653327,-1.106880000842,0.694082947212,0.235534517949,1.244654527746,-0.323341796092,0.680848219283,0.83704644122,0.719541718075,1.205874223032,0.445898626114,-1.457020900006,-1.851498953836,1.552965417203,1.465644692707,-1.102572913143,-0.824921843794,1.762131981161,-0.01526562819,-0.154090106932,1.385434063703,0.3064117773,0.875264925824,-0.667342401886,0.446189680019,-0.352693047352,-1.454729979231,-1.216009219278,-1.981703577042,-0.452713813611,-0.851774084825,0.938372703706,-1.176184691152,1.88061739997,-0.112786842935,0.146105029362,-0.106753518203,-0.74240682928,0.998062777518,1.336500109889,-0.751549167536,-0.446059004658,-0.711693085922,-2.048738939477,0.437829967373]],"biases":[[0.306158795397,0.991147255987,0.109718740177,-0.259687748393,-0.392343578577,-1.525235439337,-0.00342129022,0.336125923244,-1.502619129095,-1.218233903413,1.65231800147,-1.319580891272,-0.537555267772,-0.999287294643,2.315837086977,0.057444002739,0.891807797966,-0.210100543643,0.326619342122,1.401349783689],[-0.707493221717,1.307159383086,-2.409296634751,0.932604909983,0.721475395803,0.120954691675,0.432784272978]],"vocab":[],"labels":[],"meta":{"trained_by":"coevolve-hof","seed":7,"loss":-144.675,"epochs":130}}