{"tinybrain":1,"topology":[16,20,8],"activations":["tanh","tanh"],"weights":[[1.458472425937,1.033059657194,0.775036654098,0.306081659024,0.384282531722,-0.382072933755,-1.048766244691,0.435831716254,0.284800855995,0.367362754171,0.983415251218,1.204671655644,-0.04076675877,0.46874155736,-0.66215508951,-1.300768660289,1.841314797588,-0.239951904463,-0.338246033359,-0.611283980176,0.155079898823,1.026150593965,0.374783199548,0.43539011182,-0.930376218925,-0.30545195956,-0.611601422686,0.865659993219,-0.157678618495,1.15514726958,1.31339186873,-0.365960840027,-0.104046869,0.490909192567,0.80386233153,-0.592679634361,-0.492375071157,0.862559701252,-0.759329562056,0.119609179962,-0.663969486516,1.407129460623,-0.878650445714,-1.138798023266,-0.274053132941,0.439776395233,1.263514968177,1.093695454902,-0.400157664064,0.092714057114,1.198826362518,0.63527975112,0.31321976558,0.711166806385,0.500467104279,0.372302819822,0.417590714906,-0.182844061722,0.060366377728,-1.903715566641,-1.661093830392,0.02697698736,-0.75588981754,0.322414808358,-0.259808462327,-0.827365193342,0.048806028789,1.086274780792,0.417818638784,1.119600180173,0.766283489888,0.728190575646,0.761269694921,1.121191895297,-0.564325655282,0.373985809634,0.731295308672,1.848557540331,0.107877553817,-0.651889040019,-0.186768220638,0.885130818787,-0.670835096888,0.221293964759,0.321599998009,0.510323442803,-1.112042833637,-0.612363047159,1.435196001751,-1.017652464806,-2.214712783329,0.270237036129,1.047987685142,-0.09457740234,-0.538764745155,0.012261366198,-0.14190361702,-1.018433631267,1.138359625469,0.150896478515,-0.600226630829,0.866912709534,-1.606967698041,0.868172460174,-1.582109861626,0.300092453091,0.861148631834,0.552574596811,0.091826815993,-0.423743237659,-1.586630087479,-0.552240388259,0.208115189806,0.986682622222,0.191310265144,-0.973227463045,-0.435778505698,0.684029455522,-0.924060039047,0.404355649466,-0.531514162399,0.28728586444,0.362392741191,0.497000664657,-1.094208820487,-0.822968660399,0.655973157778,-0.336709900264,0.266275056436,1.18649701061,0.721987067779,-0.160500751697,0.434149115176,-0.07212256285,0.093825381991,-0.870073568341,1.027967569524,1.240079133883,-0.512753903499,0.768094975952,-0.20813100329,0.603512144603,1.684150570624,-0.082178567388,-0.894010210966,-0.062532261742,0.145864824274,1.431799598751,-0.693991589217,-1.854524153077,-1.13677902242,0.533697087473,-0.062953923067,0.59069418455,0.03409811544,-0.45570916103,0.744819817061,-0.648955661687,-1.374475220672,1.66803423677,1.809722094941,-1.033259861699,-0.377798882396,1.026816552052,-0.945598646554,-1.431782481229,-0.614614704305,1.194750024469,0.617963028708,-0.483383276446,-0.427152883134,0.858118034973,-1.447167111862,1.533771581544,1.045964584474,-0.650765495259,0.433632872223,-0.707081742122,0.323191556578,-2.142749701693,-0.026114758722,-0.014330327192,0.670168787553,0.416950833898,0.489564815531,-0.418842228511,-0.910312616318,1.82522741385,0.618923134645,0.043870270599,-0.927065402189,-0.711299181968,-0.228675379431,-0.253248440033,-0.62213793412,0.289296121983,0.069523847508,1.448958120285,-0.287125262333,-0.264907396848,-0.715285585967,-0.385357104887,0.631727072053,1.908188247964,-1.787469856901,-0.122849286451,-0.971952836715,-0.212910079636,-0.623851610778,-1.154402456132,0.868568411175,0.276716278017,0.194487139301,0.142739013137,-0.478227890738,0.408852969254,0.474271803104,0.030245550969,0.445413431686,-0.347319275489,-0.22925788864,-0.874194884381,-1.435966605337,-0.484422023913,0.495419307377,-0.973631598974,-0.140517418012,0.541764747045,-1.136812727357,0.23431957212,-0.955774815872,-1.725389684655,-0.183563802616,-1.322126392146,-2.608107373308,0.701464543818,0.680827993984,0.308024518522,-0.86110444095,-0.43124528878,0.581098118043,0.580865118923,-0.56115165798,-0.032507109238,-0.692170066243,0.101089920803,-0.873075713857,0.030047504338,0.661963424721,-0.069515384394,-0.266481825461,-0.379575593434,0.202636137094,0.032707098794,0.447083780238,1.028241865723,-0.059933586214,0.464126928832,-0.563198285486,-0.787371741742,0.73666744327,-0.203326696578,-0.444275302367,1.129723043567,1.399685553647,-0.094434386396,-0.992219732419,1.014137056942,0.305302799682,-1.305564893319,-0.262723353441,0.63847829557,1.441346537155,1.710203971858,-0.430385884796,0.351427715109,0.345898336566,0.676877988864,-0.437528720935,-0.588170448173,-0.151001465531,-0.483673073204,-0.802935989575,-1.86420810966,-1.069475544789,-0.298600090155,-1.523137827089,0.607660226714,-1.785923769412,1.027509779077,-1.46237911855,1.968217296464,0.384205817424,1.112586488674,0.329806588511,0.824732289521,-0.093766618657,-0.376023644011,0.450696396758,0.955061461057,-0.321676947373,-0.050685075089,-0.379695182098,-1.126875505702,-0.249357566493,-1.634370127942,0.435863347694,0.132019722942,-0.079615157042,-1.35942458895,1.790703170649,-1.103885133194,-0.85894945248,0.588218301809,0.414915436513,0.307169149819,-0.864759870882,-0.842939950732,-1.779072814378,-0.013384994591],[-0.032949742923,-0.640102369497,-0.361187545704,0.428024889588,-0.108823552359,-0.521491476391,-1.043804078942,0.667126919081,1.829855383062,-1.216415289937,0.555900361136,-0.863038375956,-0.625579227193,0.522569208416,-0.695771389918,-0.501602690109,0.329568901905,-1.018698443388,-1.452530778084,-0.356139619023,0.774183257238,-1.14681524264,-2.045139388389,-1.297112218382,0.805205594797,0.421562132994,-0.196236007007,0.438277777954,-0.322651253791,0.1825309541,0.494380222119,-2.2896288,0.664618954884,1.499422725569,0.151428313391,-0.42580807457,0.959735529991,-0.521133980863,1.495011901434,-0.299647690356,0.544371873813,1.038246755459,-1.326077893295,-0.238575405785,-1.311780287238,-1.107918162648,0.885141625854,-0.747863457654,-0.162512329948,0.68693958171,-0.966336734531,2.050197510771,0.167027594599,-0.795983699102,-0.320339370016,-0.127653652489,-0.64955045206,1.416608391431,-0.18887541857,-0.462022252736,0.785888168302,0.105379778615,0.672391937288,-0.481516648215,-1.684981317485,0.397497238776,0.860504906699,-0.637141580757,1.509365747361,0.65280717651,-0.18286328287,-0.475489784812,0.385405524115,-0.145677050364,-0.562482228439,-1.297610467019,-0.295733127043,1.479620974036,0.377650189156,0.377563535877,-1.331013479191,0.127861235304,-1.718577888803,-0.792002436049,0.918019729209,1.203798966484,0.468935966151,-1.48840313693,0.489041222441,0.070136101111,1.124434808653,0.345595909164,1.272719701879,-1.445432358862,1.306997873311,-0.316274642579,1.118424004977,-0.330955010946,0.028490754044,-0.777033450863,-1.533533125899,-0.702332124115,0.060441015549,0.16000791437,-0.252520731163,0.683013068923,0.67457731351,-0.493080433641,0.444624194943,0.234267947001,0.072284830302,-0.538104267622,0.607596462317,-0.718113284892,-0.786332390265,-1.04652980028,-1.297686319704,-0.754352154422,0.072878398966,0.53760989203,0.851161396574,0.912235115847,-0.576332547551,0.080514866663,0.526378696517,-0.480814079279,1.242365633902,0.128846517964,-0.452272705851,-0.508759937533,-0.352629029496,-2.455477157959,1.413868893783,1.504990974211,-0.435034790419,-0.26233415397,-0.483326211005,-0.273099543002,0.846924768783,1.304680675596,0.554465488323,-1.024012534704,1.981051876853,0.412457196653,0.485292365116,-0.191883739453,-0.714893931623,0.031071672836,0.558493209425,-0.874024025432,-0.864604489582,-1.338900318294,0.130583343297,-0.06059262462,-0.149339353828,2.008402790971,1.04951111495,0.260362231434,-0.810653627948,-0.639201774047]],"biases":[[-0.884739221486,0.24470320835,0.548496551136,0.572397465199,-0.000137513224,0.616758157786,1.060334269358,-0.947646804595,-0.192779196609,-1.533720379664,0.893245159552,0.118913451917,-0.162241999508,1.23041372892,-0.793391945303,-0.296560457813,-0.702579792218,-0.072936712612,1.278007437046,-2.210951970849],[-0.281938636341,-0.086473275063,1.334705284301,1.127930754762,1.39072687537,-0.237146305077,1.660800988675,0.091439735094]],"vocab":[],"labels":[],"meta":{"trained_by":"coevolve-hof","seed":0,"loss":0,"epochs":0}}